<?xml version="1.0"?>
<opencv_storage>
<cascade>
  <stageType>BOOST</stageType>
  <featureType>HAAR</featureType>
  <height>24</height>
  <width>24</width>
  <stageParams>
    <boostType>GAB</boostType>
    <minHitRate>9.9500000476837158e-01</minHitRate>
    <maxFalseAlarm>5.0000000000000000e-01</maxFalseAlarm>
    <weightTrimRate>9.4999999999999996e-01</weightTrimRate>
    <maxDepth>1</maxDepth>
    <maxWeakCount>100</maxWeakCount></stageParams>
  <featureParams>
    <maxCatCount>0</maxCatCount>
    <featSize>1</featSize>
    <mode>BASIC</mode></featureParams>
  <stageNum>15</stageNum>
  <stages>
    <!-- stage 0 -->
    <_>
      <maxWeakCount>1</maxWeakCount>
      <stageThreshold>8.3673471212387085e-01</stageThreshold>
      <weakClassifiers>
        <_>
          <internalNodes>
            0 -1 12 -2.1645318716764450e-02</internalNodes>
          <leafValues>
            8.3673471212387085e-01 -1.</leafValues></_></weakClassifiers></_>
    <!-- stage 1 -->
    <_>
      <maxWeakCount>2</maxWeakCount>
      <stageThreshold>-1.2650932371616364e-01</stageThreshold>
      <weakClassifiers>
        <_>
          <internalNodes>
            0 -1 7 -1.0352456942200661e-02</internalNodes>
          <leafValues>
            8.3529412746429443e-01 -7.4736839532852173e-01</leafValues></_>
        <_>
          <internalNodes>
            0 -1 0 2.8623703867197037e-02</internalNodes>
          <leafValues>
            -9.6180343627929688e-01 6.8514919281005859e-01</leafValues></_></weakClassifiers></_>
    <!-- stage 2 -->
    <_>
      <maxWeakCount>2</maxWeakCount>
      <stageThreshold>-6.8937383592128754e-02</stageThreshold>
      <weakClassifiers>
        <_>
          <internalNodes>
            0 -1 40 -5.3034098818898201e-03</internalNodes>
          <leafValues>
            8.7500000000000000e-01 -6.9999998807907104e-01</leafValues></_>
        <_>
          <internalNodes>
            0 -1 15 -5.1036905497312546e-03</internalNodes>
          <leafValues>
            6.3106262683868408e-01 -1.</leafValues></_></weakClassifiers></_>
    <!-- stage 3 -->
    <_>
      <maxWeakCount>4</maxWeakCount>
      <stageThreshold>-3.2039186358451843e-01</stageThreshold>
      <weakClassifiers>
        <_>
          <internalNodes>
            0 -1 39 -7.2643637657165527e-02</internalNodes>
          <leafValues>
            7.9069769382476807e-01 -7.2340422868728638e-01</leafValues></_>
        <_>
          <internalNodes>
            0 -1 3 5.1690306514501572e-02</internalNodes>
          <leafValues>
            -6.7410004138946533e-01 7.1201115846633911e-01</leafValues></_>
        <_>
          <internalNodes>
            0 -1 21 1.2894507963210344e-03</internalNodes>
          <leafValues>
            5.0231599807739258e-01 -9.8463416099548340e-01</leafValues></_>
        <_>
          <internalNodes>
            0 -1 34 -1.3066343963146210e-03</internalNodes>
          <leafValues>
            -9.1825777292251587e-01 5.7479643821716309e-01</leafValues></_></weakClassifiers></_>
    <!-- stage 4 -->
    <_>
      <maxWeakCount>2</maxWeakCount>
      <stageThreshold>-7.9183466732501984e-02</stageThreshold>
      <weakClassifiers>
        <_>
          <internalNodes>
            0 -1 32 -3.6646313965320587e-02</internalNodes>
          <leafValues>
            7.0588237047195435e-01 -9.2307692766189575e-01</leafValues></_>
        <_>
          <internalNodes>
            0 -1 5 3.9579492062330246e-02</internalNodes>
          <leafValues>
            -7.8506582975387573e-01 8.8004970550537109e-01</leafValues></_></weakClassifiers></_>
    <!-- stage 5 -->
    <_>
      <maxWeakCount>4</maxWeakCount>
      <stageThreshold>-7.1619004011154175e-01</stageThreshold>
      <weakClassifiers>
        <_>
          <internalNodes>
            0 -1 19 -1.3168619479984045e-03</internalNodes>
          <leafValues>
            -8.2926827669143677e-01 6.9387757778167725e-01</leafValues></_>
        <_>
          <internalNodes>
            0 -1 17 -3.4824531758204103e-04</internalNodes>
          <leafValues>
            4.2372173070907593e-01 -1.</leafValues></_>
        <_>
          <internalNodes>
            0 -1 30 -2.5207982398569584e-03</internalNodes>
          <leafValues>
            -8.0309516191482544e-01 5.7774174213409424e-01</leafValues></_>
        <_>
          <internalNodes>
            0 -1 33 -2.8352346271276474e-04</internalNodes>
          <leafValues>
            4.9245169758796692e-01 -1.</leafValues></_></weakClassifiers></_>
    <!-- stage 6 -->
    <_>
      <maxWeakCount>3</maxWeakCount>
      <stageThreshold>-3.9110137149691582e-03</stageThreshold>
      <weakClassifiers>
        <_>
          <internalNodes>
            0 -1 18 -7.0949783548712730e-03</internalNodes>
          <leafValues>
            -8.9189189672470093e-01 6.2264150381088257e-01</leafValues></_>
        <_>
          <internalNodes>
            0 -1 13 1.9990539294667542e-04</internalNodes>
          <leafValues>
            4.2736342549324036e-01 -9.7577434778213501e-01</leafValues></_>
        <_>
          <internalNodes>
            0 -1 38 -2.6222725864499807e-04</internalNodes>
          <leafValues>
            -9.2747938632965088e-01 4.6061745285987854e-01</leafValues></_></weakClassifiers></_>
    <!-- stage 7 -->
    <_>
      <maxWeakCount>2</maxWeakCount>
      <stageThreshold>-2.1060411632061005e-01</stageThreshold>
      <weakClassifiers>
        <_>
          <internalNodes>
            0 -1 2 5.0846930593252182e-02</internalNodes>
          <leafValues>
            -7.2916668653488159e-01 8.3333331346511841e-01</leafValues></_>
        <_>
          <internalNodes>
            0 -1 37 1.4824647223576903e-04</internalNodes>
          <leafValues>
            5.1856255531311035e-01 -8.7097018957138062e-01</leafValues></_></weakClassifiers></_>
    <!-- stage 8 -->
    <_>
      <maxWeakCount>4</maxWeakCount>
      <stageThreshold>-4.6814426779747009e-01</stageThreshold>
      <weakClassifiers>
        <_>
          <internalNodes>
            0 -1 28 -8.8628847151994705e-04</internalNodes>
          <leafValues>
            -9.3103450536727905e-01 4.4262295961380005e-01</leafValues></_>
        <_>
          <internalNodes>
            0 -1 35 -1.1194789782166481e-02</internalNodes>
          <leafValues>
            5.1596391201019287e-01 -7.9866367578506470e-01</leafValues></_>
        <_>
          <internalNodes>
            0 -1 36 -2.5522476062178612e-02</internalNodes>
          <leafValues>
            -6.9236099720001221e-01 6.1880987882614136e-01</leafValues></_>
        <_>
          <internalNodes>
            0 -1 6 -4.6581309288740158e-03</internalNodes>
          <leafValues>
            6.3928729295730591e-01 -7.0300793647766113e-01</leafValues></_></weakClassifiers></_>
    <!-- stage 9 -->
    <_>
      <maxWeakCount>3</maxWeakCount>
      <stageThreshold>-1.4810921251773834e-01</stageThreshold>
      <weakClassifiers>
        <_>
          <internalNodes>
            0 -1 26 -1.5281347441487014e-04</internalNodes>
          <leafValues>
            5.3043478727340698e-01 -9.3846154212951660e-01</leafValues></_>
        <_>
          <internalNodes>
            0 -1 11 -6.5428875386714935e-03</internalNodes>
          <leafValues>
            -9.0496492385864258e-01 4.0011495351791382e-01</leafValues></_>
        <_>
          <internalNodes>
            0 -1 23 -3.8555849459953606e-04</internalNodes>
          <leafValues>
            -9.2853468656539917e-01 3.9023736119270325e-01</leafValues></_></weakClassifiers></_>
    <!-- stage 10 -->
    <_>
      <maxWeakCount>3</maxWeakCount>
      <stageThreshold>4.0746010839939117e-02</stageThreshold>
      <weakClassifiers>
        <_>
          <internalNodes>
            0 -1 16 -1.4208956854417920e-03</internalNodes>
          <leafValues>
            4.4715446233749390e-01 -9.6491229534149170e-01</leafValues></_>
        <_>
          <internalNodes>
            0 -1 9 6.9321517366915941e-04</internalNodes>
          <leafValues>
            -7.6330244541168213e-01 4.9875551462173462e-01</leafValues></_>
        <_>
          <internalNodes>
            0 -1 1 1.0423797369003296e-01</internalNodes>
          <leafValues>
            -8.5761475563049316e-01 5.0690275430679321e-01</leafValues></_></weakClassifiers></_>
    <!-- stage 11 -->
    <_>
      <maxWeakCount>2</maxWeakCount>
      <stageThreshold>-1.6763933002948761e-01</stageThreshold>
      <weakClassifiers>
        <_>
          <internalNodes>
            0 -1 4 4.9941278994083405e-03</internalNodes>
          <leafValues>
            -6.3043481111526489e-01 6.5909093618392944e-01</leafValues></_>
        <_>
          <internalNodes>
            0 -1 25 -1.3248156756162643e-04</internalNodes>
          <leafValues>
            5.3258293867111206e-01 -8.2673025131225586e-01</leafValues></_></weakClassifiers></_>
    <!-- stage 12 -->
    <_>
      <maxWeakCount>3</maxWeakCount>
      <stageThreshold>-6.2910497188568115e-02</stageThreshold>
      <weakClassifiers>
        <_>
          <internalNodes>
            0 -1 10 -1.4124405570328236e-03</internalNodes>
          <leafValues>
            -9.2857140302658081e-01 4.1935482621192932e-01</leafValues></_>
        <_>
          <internalNodes>
            0 -1 20 3.1293413485400379e-04</internalNodes>
          <leafValues>
            4.2794018983840942e-01 -8.6013787984848022e-01</leafValues></_>
        <_>
          <internalNodes>
            0 -1 31 -3.7913501728326082e-04</internalNodes>
          <leafValues>
            -9.0969741344451904e-01 4.3772071599960327e-01</leafValues></_></weakClassifiers></_>
    <!-- stage 13 -->
    <_>
      <maxWeakCount>3</maxWeakCount>
      <stageThreshold>-8.3590120077133179e-02</stageThreshold>
      <weakClassifiers>
        <_>
          <internalNodes>
            0 -1 24 6.5063935471698642e-04</internalNodes>
          <leafValues>
            4.0799999237060547e-01 -9.2727273702621460e-01</leafValues></_>
        <_>
          <internalNodes>
            0 -1 8 -8.0184619873762131e-03</internalNodes>
          <leafValues>
            4.8273751139640808e-01 -7.7247262001037598e-01</leafValues></_>
        <_>
          <internalNodes>
            0 -1 29 -2.4936563568189740e-04</internalNodes>
          <leafValues>
            4.0800103545188904e-01 -9.7432762384414673e-01</leafValues></_></weakClassifiers></_>
    <!-- stage 14 -->
    <_>
      <maxWeakCount>4</maxWeakCount>
      <stageThreshold>-2.2800646722316742e-01</stageThreshold>
      <weakClassifiers>
        <_>
          <internalNodes>
            0 -1 14 -3.1683335546404123e-03</internalNodes>
          <leafValues>
            -8.8235294818878174e-01 5.3571426868438721e-01</leafValues></_>
        <_>
          <internalNodes>
            0 -1 41 -4.7539867460727692e-02</internalNodes>
          <leafValues>
            7.9076516628265381e-01 -5.3400582075119019e-01</leafValues></_>
        <_>
          <internalNodes>
            0 -1 22 -4.6679371735081077e-05</internalNodes>
          <leafValues>
            4.4831714034080505e-01 -8.7122577428817749e-01</leafValues></_>
        <_>
          <internalNodes>
            0 -1 27 2.6497746148379520e-05</internalNodes>
          <leafValues>
            -4.5736339688301086e-01 7.4003517627716064e-01</leafValues></_></weakClassifiers></_></stages>
  <features>
    <_>
      <rects>
        <_>
          0 0 20 6 -1.</_>
        <_>
          0 3 20 3 2.</_></rects>
      <tilted>0</tilted></_>
    <_>
      <rects>
        <_>
          0 0 22 10 -1.</_>
        <_>
          0 5 22 5 2.</_></rects>
      <tilted>0</tilted></_>
    <_>
      <rects>
        <_>
          0 3 8 11 -1.</_>
        <_>
          4 3 4 11 2.</_></rects>
      <tilted>0</tilted></_>
    <_>
      <rects>
        <_>
          0 10 8 13 -1.</_>
        <_>
          4 10 4 13 2.</_></rects>
      <tilted>0</tilted></_>
    <_>
      <rects>
        <_>
          0 11 8 1 -1.</_>
        <_>
          4 11 4 1 2.</_></rects>
      <tilted>0</tilted></_>
    <_>
      <rects>
        <_>
          0 14 8 8 -1.</_>
        <_>
          4 14 4 8 2.</_></rects>
      <tilted>0</tilted></_>
    <_>
      <rects>
        <_>
          1 21 15 2 -1.</_>
        <_>
          1 22 15 1 2.</_></rects>
      <tilted>0</tilted></_>
    <_>
      <rects>
        <_>
          2 22 18 2 -1.</_>
        <_>
          2 23 18 1 2.</_></rects>
      <tilted>0</tilted></_>
    <_>
      <rects>
        <_>
          3 22 16 2 -1.</_>
        <_>
          3 23 16 1 2.</_></rects>
      <tilted>0</tilted></_>
    <_>
      <rects>
        <_>
          5 8 4 16 -1.</_>
        <_>
          5 8 2 8 2.</_>
        <_>
          7 16 2 8 2.</_></rects>
      <tilted>0</tilted></_>
    <_>
      <rects>
        <_>
          6 10 2 8 -1.</_>
        <_>
          6 14 2 4 2.</_></rects>
      <tilted>0</tilted></_>
    <_>
      <rects>
        <_>
          6 10 5 10 -1.</_>
        <_>
          6 15 5 5 2.</_></rects>
      <tilted>0</tilted></_>
    <_>
      <rects>
        <_>
          6 11 12 1 -1.</_>
        <_>
          10 11 4 1 2.</_></rects>
      <tilted>0</tilted></_>
    <_>
      <rects>
        <_>
          6 12 10 3 -1.</_>
        <_>
          11 12 5 3 2.</_></rects>
      <tilted>0</tilted></_>
    <_>
      <rects>
        <_>
          6 12 12 3 -1.</_>
        <_>
          12 12 6 3 2.</_></rects>
      <tilted>0</tilted></_>
    <_>
      <rects>
        <_>
          6 15 13 6 -1.</_>
        <_>
          6 18 13 3 2.</_></rects>
      <tilted>0</tilted></_>
    <_>
      <rects>
        <_>
          7 8 3 12 -1.</_>
        <_>
          7 14 3 6 2.</_></rects>
      <tilted>0</tilted></_>
    <_>
      <rects>
        <_>
          7 8 5 10 -1.</_>
        <_>
          7 13 5 5 2.</_></rects>
      <tilted>0</tilted></_>
    <_>
      <rects>
        <_>
          7 9 7 10 -1.</_>
        <_>
          7 14 7 5 2.</_></rects>
      <tilted>0</tilted></_>
    <_>
      <rects>
        <_>
          7 16 6 6 -1.</_>
        <_>
          10 16 3 6 2.</_></rects>
      <tilted>0</tilted></_>
    <_>
      <rects>
        <_>
          7 17 4 4 -1.</_>
        <_>
          7 17 2 2 2.</_>
        <_>
          9 19 2 2 2.</_></rects>
      <tilted>0</tilted></_>
    <_>
      <rects>
        <_>
          7 17 6 4 -1.</_>
        <_>
          10 17 3 4 2.</_></rects>
      <tilted>0</tilted></_>
    <_>
      <rects>
        <_>
          8 8 6 4 -1.</_>
        <_>
          11 8 3 4 2.</_></rects>
      <tilted>0</tilted></_>
    <_>
      <rects>
        <_>
          8 16 4 4 -1.</_>
        <_>
          8 16 2 2 2.</_>
        <_>
          10 18 2 2 2.</_></rects>
      <tilted>0</tilted></_>
    <_>
      <rects>
        <_>
          9 11 6 10 -1.</_>
        <_>
          9 11 3 5 2.</_>
        <_>
          12 16 3 5 2.</_></rects>
      <tilted>0</tilted></_>
    <_>
      <rects>
        <_>
          10 5 3 8 -1.</_>
        <_>
          10 9 3 4 2.</_></rects>
      <tilted>0</tilted></_>
    <_>
      <rects>
        <_>
          10 9 6 4 -1.</_>
        <_>
          13 9 3 4 2.</_></rects>
      <tilted>0</tilted></_>
    <_>
      <rects>
        <_>
          10 20 1 2 -1.</_>
        <_>
          10 21 1 1 2.</_></rects>
      <tilted>0</tilted></_>
    <_>
      <rects>
        <_>
          11 8 4 6 -1.</_>
        <_>
          13 8 2 6 2.</_></rects>
      <tilted>0</tilted></_>
    <_>
      <rects>
        <_>
          11 11 6 5 -1.</_>
        <_>
          14 11 3 5 2.</_></rects>
      <tilted>0</tilted></_>
    <_>
      <rects>
        <_>
          11 14 2 6 -1.</_>
        <_>
          11 17 2 3 2.</_></rects>
      <tilted>0</tilted></_>
    <_>
      <rects>
        <_>
          11 14 4 6 -1.</_>
        <_>
          11 14 2 3 2.</_>
        <_>
          13 17 2 3 2.</_></rects>
      <tilted>0</tilted></_>
    <_>
      <rects>
        <_>
          12 3 12 6 -1.</_>
        <_>
          18 3 6 6 2.</_></rects>
      <tilted>0</tilted></_>
    <_>
      <rects>
        <_>
          12 7 6 8 -1.</_>
        <_>
          15 7 3 8 2.</_></rects>
      <tilted>0</tilted></_>
    <_>
      <rects>
        <_>
          12 8 6 4 -1.</_>
        <_>
          15 8 3 4 2.</_></rects>
      <tilted>0</tilted></_>
    <_>
      <rects>
        <_>
          12 12 10 12 -1.</_>
        <_>
          12 12 5 6 2.</_>
        <_>
          17 18 5 6 2.</_></rects>
      <tilted>0</tilted></_>
    <_>
      <rects>
        <_>
          14 0 9 1 -1.</_>
        <_>
          17 0 3 1 2.</_></rects>
      <tilted>0</tilted></_>
    <_>
      <rects>
        <_>
          15 8 4 8 -1.</_>
        <_>
          15 8 2 4 2.</_>
        <_>
          17 12 2 4 2.</_></rects>
      <tilted>0</tilted></_>
    <_>
      <rects>
        <_>
          16 14 2 2 -1.</_>
        <_>
          17 14 1 2 2.</_></rects>
      <tilted>0</tilted></_>
    <_>
      <rects>
        <_>
          18 5 6 18 -1.</_>
        <_>
          21 5 3 18 2.</_></rects>
      <tilted>0</tilted></_>
    <_>
      <rects>
        <_>
          18 11 6 1 -1.</_>
        <_>
          21 11 3 1 2.</_></rects>
      <tilted>0</tilted></_>
    <_>
      <rects>
        <_>
          18 12 6 6 -1.</_>
        <_>
          21 12 3 6 2.</_></rects>
      <tilted>0</tilted></_></features></cascade>
</opencv_storage>
